tree
version=v4
num_class=1
num_tree_per_iteration=1
label_index=0
max_feature_idx=19
objective=binary sigmoid:1
feature_names=hour_of_day day_of_week severity_numeric source_type_numeric src_bytes dst_bytes event_freq_1m protocol dst_port template_rarity threat_intel_flag duration same_srv_rate diff_srv_rate serror_rate rerror_rate count srv_count dst_host_count dst_host_srv_count
feature_infos=[0:23] [0:6] [1:4] [1:10] [0:1000000000] [0:1000000000] [0:100000] [0:254] [0:65530] [0.10000000149011612:1] none [0:119998768] [0:1] [0:1] [0:1] [0:1] [0:12670] [0:11018] [1:255] [1:255]
tree_sizes=362 470 463 469 6832

Tree=0
num_leaves=2
num_cat=0
split_feature=2
split_gain=85399.2
threshold=1.5000000000000002
decision_type=2
left_child=-1
right_child=-2
leaf_value=-0.13087036887172415 0.068993984804223918
leaf_weight=10713.673503816128 10663.246338456869
leaf_count=42866 41302
internal_value=-0.0311741
internal_weight=21376.9
internal_count=84168
is_linear=0
shrinkage=1


Tree=1
num_leaves=3
num_cat=0
split_feature=2 3
split_gain=77267.5 11.7774
threshold=1.5000000000000002 1.5000000000000002
decision_type=2 2
left_child=-1 -2
right_child=1 -3
leaf_value=-0.093857345568044329 0.075584994338039196 0.096656990297108641
leaf_weight=10670.742348194122 89.211338400840759 10564.165916442871
leaf_count=42866 347 40955
internal_value=0.00123771 0.0964881
internal_weight=21324.1 10653.4
internal_count=84168 41302
is_linear=0
shrinkage=0.05


Tree=2
num_leaves=3
num_cat=0
split_feature=2 3
split_gain=70244.1 10.794
threshold=1.5000000000000002 1.5000000000000002
decision_type=2 2
left_child=-1 -2
right_child=1 -3
leaf_value=-0.08992769260941047 0.07214272265736181 0.092357852449322
leaf_weight=10582.330915987492 88.85015943646431 10504.513050079346
leaf_count=42866 347 40955
internal_value=0.00118121 0.0921956
internal_weight=21175.7 10593.4
internal_count=84168 41302
is_linear=0
shrinkage=0.05


Tree=3
num_leaves=3
num_cat=0
split_feature=2 3
split_gain=64122.4 10.0948
threshold=1.5000000000000002 1.5000000000000002
decision_type=2 2
left_child=-1 -2
right_child=1 -3
leaf_value=-0.086493344551246118 0.069037381265256936 0.088620426872488847
leaf_weight=10455.561511218548 88.277845859527588 10402.654071807861
leaf_count=42866 347 40955
internal_value=0.0011322 0.0884627
internal_weight=20946.5 10490.9
internal_count=84168 41302
is_linear=0
shrinkage=0.05


Tree=4
num_leaves=63
num_cat=0
split_feature=5 12 9 11 8 9 11 9 17 4 16 13 8 16 7 11 5 8 11 13 5 6 11 4 4 7 16 11 8 4 8 16 8 11 6 4 6 8 8 4 4 17 15 4 5 11 4 17 5 5 5 5 4 4 11 6 8 8 4 16 6 11
split_gain=6156.04 3709.24 5273.78 3113.06 1761.63 2216.72 3145.8 2197.75 2817.05 1367.54 1326.27 1135.26 919.79 1013.75 837.04 793.78 653.187 636.732 535.653 724.769 751.65 339.629 592.327 366.397 332.816 318.322 369.195 271.684 268.203 228.839 219.645 190.459 187.933 180.96 160.381 157.308 156.936 304.601 164.212 138.3 118.682 118.061 106.953 81.3557 80.1454 67.2962 62.9477 60.6419 56.4162 303.202 55.209 51.7616 50.2049 45.8677 42.5171 37.2381 34.8732 152.995 28.5781 27.6958 37.0223 24.3648
threshold=18.500000000000004 1.0000000180025095e-35 0.40000244975090032 64136.000000000007 79.500000000000014 0.49982765316963201 509532.50000000006 0.50443324446678173 1.5000000000000002 43928.500000000007 185.50000000000003 0.48499999940395361 112.00000000000001 6.5000000000000009 8.0000000000000018 0.11777950078248979 2923.0000000000005 443.50000000000006 0.1776315048336983 0.097619049251079573 1643.5000000000002 26.000251770019535 126.80086135864259 30.500000000000004 1540.5000000000002 8.0000000000000018 1.5000000000000002 105208288.00000001 32793.000000000007 3391.5000000000005 14334.000000000002 1.5000000000000002 20.500000000000004 6.0016710758209237 6.999767780303956 18.500000000000004 2.9652149677276616 641.00000000000011 435.00000000000006 98.500000000000014 1.0000000180025095e-35 1.5000000000000002 0.15500000119209292 7807.0000000000009 1946.5000000000002 0.95781049132347118 28.500000000000004 2.5000000000000004 2744.5000000000005 373.50000000000006 31786.000000000004 1.0000000180025095e-35 3.5000000000000004 5.5000000000000009 1.0000000180025095e-35 0.17991746962070468 136.00000000000003 443.50000000000006 610.50000000000011 60.500000000000007 10.000400066375734 8.2613782882690447
decision_type=2 2 2 2 2 2 2 2 2 2 2 2 2 2 2 2 2 2 2 2 2 2 2 2 2 2 2 2 2 2 2 2 2 2 2 2 2 2 2 2 2 2 2 2 2 2 2 2 2 2 2 2 2 2 2 2 2 2 2 2 2 2
left_child=1 2 31 9 29 -6 7 8 28 11 25 18 13 44 -10 -13 32 -14 42 21 43 22 -20 -23 58 36 -27 48 -7 34 -19 -1 61 -31 35 40 37 38 -4 46 41 -3 53 -21 -5 -28 -37 -22 49 -15 -26 -36 -53 -2 -41 -29 -8 -58 -18 -50 -61 -17
right_child=3 4 10 12 5 6 56 -9 14 -11 -12 15 17 27 -16 16 24 30 19 20 47 23 -24 -25 50 26 45 55 -30 33 -32 -33 -34 -35 51 39 -38 -39 -40 54 -42 -43 -44 -45 -46 -47 -48 -49 59 -51 -52 52 -54 -55 -56 -57 57 -59 -60 60 -62 -63
leaf_value=0.085312201992175721 0.03968278093557169 0.055809155694098701 -0.038392421871108126 -0.082810634049321333 0.085275433552970473 0.063075262993102843 0.079604172914739479 0.085151650958276023 -0.072574127512454525 0.081087807918645366 0.084771011984455191 -0.079687794668910142 -0.083125811896156074 0.080061156282879686 0.079303149441912205 0.01629641269354478 -0.010207557213584174 0.080932777498609332 -0.056626881545808111 0.074398308910538877 -0.013246881045373284 0.075241431838085279 0.016996526946636913 -0.076492964298010252 -0.076598838834551888 -0.075875819047386106 0.084240610026006565 0.056738596175069544 -0.0021238458097976461 -0.081488260679377533 -0.080103309168509079 -0.078641323925053463 0.079580895769958845 0.07817675214190388 0.081996315758739724 0.045899436444514913 -0.083435416782147456 -0.072475070699161176 0.044725193130500301 0.030094119870779274 0.083008343047839772 -0.037392664575570819 0.065526356445265485 -0.023150743951368177 0.075050955471067493 -0.056876404619938349 -0.071617478841881632 -0.075120269747164611 0.08244341848167043 -0.068518999882577578 -0.010731884208616564 0.07164621831491208 -0.075321732292542062 -0.081824708532938009 0.069852070872331903 -0.080830788140921817 -0.078938866990879208 0.076394886821582089 0.080103988936364945 0.064529077803375245 -0.066570723298789158 -0.079346434319948672
leaf_weight=907.31026275455952 7.1940920054912558 293.0455788820982 173.67032045125961 131.63313359022141 1158.2447836995125 581.94561439752579 1093.986280977726 446.90552896261215 1928.2592975199223 200.82139337062836 154.14856344461441 223.33953528106213 250.53473959863186 176.98864963650703 94.369024038314819 9.1171736419200915 10.025997906923292 111.18346747756004 1203.2229074984789 240.46564827859402 53.283872202038765 40.020145893096924 352.72556328773499 1580.8588526695967 159.50723893940449 83.006776452064514 80.207504794001579 4.9921218007802954 215.9550379216671 43.477320790290833 25.221650689840317 17.29484635591507 365.92560158669949 28.542556032538414 1886.2731676548719 14.652383804321287 1206.0690746903419 776.27298024296761 89.063837796449661 206.85838614404202 573.66087929904461 37.649626597762108 11.738692283630369 22.913520574569702 7.7700893878936759 8.6891778260469419 42.14049369096756 161.4915486574173 768.68602472543716 41.691417753696442 40.354512348771095 11.508927538990976 9.8484550565481168 1947.1635182201862 101.62740851938725 32.427818015217781 18.495786905288696 86.045534908771515 54.839714407920837 16.970975726842884 6.7362154126167288 20.417527630925179
leaf_count=3617 29 1178 715 548 4621 2335 4371 1783 8006 802 615 929 1043 707 377 37 41 444 4976 962 218 160 1432 6570 663 345 320 20 881 181 105 72 1462 114 7532 59 5020 3223 359 837 2290 155 47 94 31 36 175 671 3069 173 165 46 41 8103 407 135 77 344 219 68 28 85
internal_value=0.00108933 0.0234255 -0.0201928 -0.032275 0.0406099 0.0236682 0.00767382 -0.0177433 -0.0340729 -0.0471317 -0.057019 -0.051103 0.0309693 0.0527697 -0.0654499 0.00157776 0.0291562 -0.035908 -0.0593831 -0.0480345 0.00933001 -0.0566705 -0.0399334 -0.0726994 -0.0315475 -0.0660954 -0.00048697 0.0696174 0.045442 0.0699165 0.0507541 0.0821584 0.0697819 -0.0179381 0.0719145 0.0580259 -0.0711143 -0.0567408 -0.0101348 0.0301898 0.0692179 0.0451023 -0.0804424 0.0658373 -0.0735042 0.0699123 -0.0409424 -0.0599257 0.0745252 0.0515286 -0.063444 0.0811202 0.00331403 -0.0813548 0.0433915 -0.0613487 0.0769272 0.0483778 0.066126 0.0807925 0.025889 -0.0500916
internal_weight=20649.5 12369.2 3495.73 8280.26 8873.49 5624.21 4465.96 3267.43 2820.53 6705.43 2571.13 6504.61 1574.84 1187.9 2022.63 883.527 660.188 386.94 5621.08 3654.98 478.155 3176.83 1555.95 1620.88 264.727 2416.98 171.903 1048.49 797.901 3249.29 136.405 924.605 395.46 72.0199 3177.27 1269.63 2245.08 1039.01 262.734 365.279 904.356 330.695 1966.1 263.379 139.403 88.8967 56.7929 214.775 1011.07 218.68 199.862 1907.63 21.3574 1954.36 308.486 37.4199 1198.53 104.541 64.8657 792.393 23.7072 29.5347
internal_count=84168 50132 14322 34036 35810 22795 18174 13382 11599 27665 10633 26863 6371 4779 8383 3601 2672 1592 23262 15083 1945 13138 6408 6730 1088 10018 701 4200 3216 13015 549 3689 1584 295 12720 5101 9317 4297 1074 1478 3623 1333 8179 1056 579 356 234 889 4045 880 828 7619 87 8132 1244 155 4792 421 260 3165 96 122
is_linear=0
shrinkage=0.05


end of trees

feature_importances:
src_bytes=12
dst_port=10
duration=10
dst_bytes=8
event_freq_1m=5
count=5
severity_numeric=4
source_type_numeric=3
template_rarity=3
srv_count=3
protocol=2
diff_srv_rate=2
same_srv_rate=1
rerror_rate=1

parameters:
[boosting: gbdt]
[objective: binary]
[metric: binary_logloss,auc]
[tree_learner: serial]
[device_type: gpu]
[data_sample_strategy: bagging]
[data: ]
[valid: ]
[num_iterations: 1000]
[learning_rate: 0.05]
[num_leaves: 63]
[num_threads: 12]
[seed: 42]
[deterministic: 0]
[force_col_wise: 1]
[force_row_wise: 0]
[histogram_pool_size: -1]
[max_depth: 8]
[min_data_in_leaf: 20]
[min_sum_hessian_in_leaf: 0.001]
[bagging_fraction: 0.8]
[pos_bagging_fraction: 1]
[neg_bagging_fraction: 1]
[bagging_freq: 5]
[bagging_seed: 400]
[bagging_by_query: 0]
[feature_fraction: 0.8]
[feature_fraction_bynode: 1]
[feature_fraction_seed: 30056]
[extra_trees: 0]
[extra_seed: 12879]
[early_stopping_round: 0]
[early_stopping_min_delta: 0]
[first_metric_only: 0]
[max_delta_step: 0]
[lambda_l1: 0.1]
[lambda_l2: 1]
[linear_lambda: 0]
[min_gain_to_split: 0]
[drop_rate: 0.1]
[max_drop: 50]
[skip_drop: 0.5]
[xgboost_dart_mode: 0]
[uniform_drop: 0]
[drop_seed: 17869]
[top_rate: 0.2]
[other_rate: 0.1]
[min_data_per_group: 100]
[max_cat_threshold: 32]
[cat_l2: 10]
[cat_smooth: 10]
[max_cat_to_onehot: 4]
[top_k: 20]
[monotone_constraints: ]
[monotone_constraints_method: basic]
[monotone_penalty: 0]
[feature_contri: ]
[forcedsplits_filename: ]
[refit_decay_rate: 0.9]
[cegb_tradeoff: 1]
[cegb_penalty_split: 0]
[cegb_penalty_feature_lazy: ]
[cegb_penalty_feature_coupled: ]
[path_smooth: 0]
[interaction_constraints: ]
[verbosity: -1]
[saved_feature_importance_type: 0]
[use_quantized_grad: 0]
[num_grad_quant_bins: 4]
[quant_train_renew_leaf: 0]
[stochastic_rounding: 1]
[linear_tree: 0]
[max_bin: 255]
[max_bin_by_feature: ]
[min_data_in_bin: 3]
[bin_construct_sample_cnt: 200000]
[data_random_seed: 175]
[is_enable_sparse: 1]
[enable_bundle: 1]
[use_missing: 1]
[zero_as_missing: 0]
[feature_pre_filter: 1]
[pre_partition: 0]
[two_round: 0]
[header: 0]
[label_column: ]
[weight_column: ]
[group_column: ]
[ignore_column: ]
[categorical_feature: ]
[forcedbins_filename: ]
[precise_float_parser: 0]
[parser_config_file: ]
[objective_seed: 16083]
[num_class: 1]
[is_unbalance: 0]
[scale_pos_weight: 1.03301]
[sigmoid: 1]
[boost_from_average: 1]
[reg_sqrt: 0]
[alpha: 0.9]
[fair_c: 1]
[poisson_max_delta_step: 0.7]
[tweedie_variance_power: 1.5]
[lambdarank_truncation_level: 30]
[lambdarank_norm: 1]
[label_gain: ]
[lambdarank_position_bias_regularization: 0]
[eval_at: ]
[multi_error_top_k: 1]
[auc_mu_weights: ]
[num_machines: 1]
[local_listen_port: 12400]
[time_out: 120]
[machine_list_filename: ]
[machines: ]
[gpu_platform_id: -1]
[gpu_device_id: -1]
[gpu_use_dp: 0]
[num_gpu: 1]

end of parameters

pandas_categorical:null
